<?xml version="1.0"?>
<opencv_storage>
<cascade>
  <stageType>BOOST</stageType>
  <featureType>LBP</featureType>
  <height>50</height>
  <width>50</width>
  <stageParams>
    <boostType>GAB</boostType>
    <minHitRate>9.9500000476837158e-01</minHitRate>
    <maxFalseAlarm>5.0000000000000000e-01</maxFalseAlarm>
    <weightTrimRate>9.4999999999999996e-01</weightTrimRate>
    <maxDepth>1</maxDepth>
    <maxWeakCount>100</maxWeakCount></stageParams>
  <featureParams>
    <maxCatCount>256</maxCatCount>
    <featSize>1</featSize></featureParams>
  <stageNum>13</stageNum>
  <stages>
    <!-- stage 0 -->
    <_>
      <maxWeakCount>6</maxWeakCount>
      <stageThreshold>-1.1877378225326538e+00</stageThreshold>
      <weakClassifiers>
        <_>
          <internalNodes>
            0 -1 32 -217842814 -251608064 -786213632 1392590848
            -553388117 -687472762 -216268869 -14680129</internalNodes>
          <leafValues>
            -5.6047701835632324e-01 5.3628915548324585e-01</leafValues></_>
        <_>
          <internalNodes>
            0 -1 83 -135266358 -83112061 -535039454 -228329590
            -242749886 1428505347 -209194462 -143130625</internalNodes>
          <leafValues>
            -5.1648467779159546e-01 4.9463912844657898e-01</leafValues></_>
        <_>
          <internalNodes>
            0 -1 40 -1358954497 67516497 -1157955998 1648098047
            -838908913 212825943 1339940303 -6299681</internalNodes>
          <leafValues>
            -3.8920730352401733e-01 5.6821501255035400e-01</leafValues></_>
        <_>
          <internalNodes>
            0 -1 97 -553648465 1001123555 1258290414 -487067666
            -573638843 107214626 -990382269 -687868417</internalNodes>
          <leafValues>
            -4.5350417494773865e-01 4.8071157932281494e-01</leafValues></_>
        <_>
          <internalNodes>
            0 -1 37 -318806401 192877367 622834387 42093466 -2045825484
            1311715379 11151315 -1414531597</internalNodes>
          <leafValues>
            -4.2024713754653931e-01 4.0493986010551453e-01</leafValues></_>
        <_>
          <internalNodes>
            0 -1 85 -405803249 130545100 1398394466 583944027 -606383785
            792969770 1912563574 2009593727</internalNodes>
          <leafValues>
            -5.8921474218368530e-01 3.2699549198150635e-01</leafValues></_></weakClassifiers></_>
    <!-- stage 1 -->
    <_>
      <maxWeakCount>7</maxWeakCount>
      <stageThreshold>-1.8515183925628662e+00</stageThreshold>
      <weakClassifiers>
        <_>
          <internalNodes>
            0 -1 112 -14945281 -70520121 -723815941 -5244741 -1185162945
            -875592753 -1129329925 -9437185</internalNodes>
          <leafValues>
            -6.6167974472045898e-01 5.6822109222412109e-01</leafValues></_>
        <_>
          <internalNodes>
            0 -1 4 -1140893697 -805572695 -251694287 2097012460
            -557856357 -73206610 -419633665 -271937</internalNodes>
          <leafValues>
            -4.3439680337905884e-01 5.2411186695098877e-01</leafValues></_>
        <_>
          <internalNodes>
            0 -1 25 -1039993950 1073872930 856462976 17036802 522170787
            1086628255 858781567 2002776959</internalNodes>
          <leafValues>
            -5.8245337009429932e-01 3.5572454333305359e-01</leafValues></_>
        <_>
          <internalNodes>
            0 -1 26 -4117 1818256331 -394694998 1659895023 -1416894137
            1090251347 -189007139 -673185893</internalNodes>
          <leafValues>
            -5.5203318595886230e-01 3.0046623945236206e-01</leafValues></_>
        <_>
          <internalNodes>
            0 -1 73 -139462097 -106441237 413990114 -68299933 1570509379
            30377334 -410017021 -212340157</internalNodes>
          <leafValues>
            -4.3102720379829407e-01 4.0973883867263794e-01</leafValues></_>
        <_>
          <internalNodes>
            0 -1 58 1989403394 379230742 2001827584 466717715 1740371862
            62898433 -1574579254 1777588603</internalNodes>
          <leafValues>
            -5.0718742609024048e-01 3.1142017245292664e-01</leafValues></_>
        <_>
          <internalNodes>
            0 -1 0 -1088482765 -1372663718 -799679905 -88351522
            -472960720 -22504942 -628139 -32971014</internalNodes>
          <leafValues>
            -4.6168458461761475e-01 3.4758573770523071e-01</leafValues></_></weakClassifiers></_>
    <!-- stage 2 -->
    <_>
      <maxWeakCount>10</maxWeakCount>
      <stageThreshold>-1.4554052352905273e+00</stageThreshold>
      <weakClassifiers>
        <_>
          <internalNodes>
            0 -1 4 -265217 -134218243 -45384717 -2254083 -551813701
            -72703046 -405014529 -8705</internalNodes>
          <leafValues>
            -6.2045258283615112e-01 5.6418555974960327e-01</leafValues></_>
        <_>
          <internalNodes>
            0 -1 112 -4983873 -1084175 -3073 -18181 522182299 -806377506
            -1129390081 -66561</internalNodes>
          <leafValues>
            -3.2158407568931580e-01 6.2456262111663818e-01</leafValues></_>
        <_>
          <internalNodes>
            0 -1 60 -144641152 -1124045568 889915745 -1760359398
            -30162461 475224992 -1826095691 842744555</internalNodes>
          <leafValues>
            -5.2245205640792847e-01 2.5216472148895264e-01</leafValues></_>
        <_>
          <internalNodes>
            0 -1 2 -1610676681 -470091925 804749311 1558641370
            -1761697797 -1363443798 1560270843 -738758789</internalNodes>
          <leafValues>
            -3.4657970070838928e-01 3.8067469000816345e-01</leafValues></_>
        <_>
          <internalNodes>
            0 -1 135 -1619381589 -1409403142 -1411657865 -788960649
            -69324029 -1090607073 2080026999 -536936452</internalNodes>
          <leafValues>
            -4.2713522911071777e-01 2.9406097531318665e-01</leafValues></_>
        <_>
          <internalNodes>
            0 -1 36 -651822871 322970041 637331180 163049331 -21531668
            -1375830541 -75563282 2013227007</internalNodes>
          <leafValues>
            -3.0788120627403259e-01 3.9682388305664063e-01</leafValues></_>
        <_>
          <internalNodes>
            0 -1 18 913251665 -129010734 2124756695 -121971691
            1562975095 -297842145 1735513591 -91526835</internalNodes>
          <leafValues>
            -3.7588962912559509e-01 3.2487520575523376e-01</leafValues></_>
        <_>
          <internalNodes>
            0 -1 101 767369039 1297035706 432136671 1500608979 731797061
            -332461500 1954479474 -68223782</internalNodes>
          <leafValues>
            -3.9369237422943115e-01 3.0691155791282654e-01</leafValues></_>
        <_>
          <internalNodes>
            0 -1 63 -771952000 1591882362 125833292 327369344 1381204427
            87990855 153191083 1402143047</internalNodes>
          <leafValues>
            -4.3516120314598083e-01 2.8161346912384033e-01</leafValues></_>
        <_>
          <internalNodes>
            0 -1 19 -1866145112 2092110336 1498443778 863070592
            -2020425758 1033092983 1459753742 460288270</internalNodes>
          <leafValues>
            -5.5407613515853882e-01 2.2710414230823517e-01</leafValues></_></weakClassifiers></_>
    <!-- stage 3 -->
    <_>
      <maxWeakCount>10</maxWeakCount>
      <stageThreshold>-1.6002665758132935e+00</stageThreshold>
      <weakClassifiers>
        <_>
          <internalNodes>
            0 -1 30 -526345 -538975749 -550021665 -143137 -723787265
            -1074799873 1786503871 -536876801</internalNodes>
          <leafValues>
            -6.3367927074432373e-01 4.9250936508178711e-01</leafValues></_>
        <_>
          <internalNodes>
            0 -1 105 -65 -65541 -65601 -134250497 -1665431105 -290537555
            2019526363 -537927697</internalNodes>
          <leafValues>
            -3.0495092272758484e-01 6.7206817865371704e-01</leafValues></_>
        <_>
          <internalNodes>
            0 -1 116 -1161853221 698310527 -100794625 1048556757
            1610276608 1325136343 -1351618746 -1000279587</internalNodes>
          <leafValues>
            -4.4776356220245361e-01 2.6309362053871155e-01</leafValues></_>
        <_>
          <internalNodes>
            0 -1 59 -7647493 1853824890 2096545462 -1033474053
            -2015904131 -46838097 -56694811 -654779940</internalNodes>
          <leafValues>
            -4.1954523324966431e-01 2.8905701637268066e-01</leafValues></_>
        <_>
          <internalNodes>
            0 -1 80 -565661982 2109315704 -1342191839 -1075454508
            -1549208120 1050947424 -42672380 995224581</internalNodes>
          <leafValues>
            -4.6282884478569031e-01 2.6088863611221313e-01</leafValues></_>
        <_>
          <internalNodes>
            0 -1 126 -1128306953 599715262 -506528297 -2084603145
            500448108 -536945654 -1094156450 -1084428440</internalNodes>
          <leafValues>
            -3.7934809923171997e-01 3.2225960493087769e-01</leafValues></_>
        <_>
          <internalNodes>
            0 -1 74 -688739232 1866098433 -884759182 993951297
            -1981432090 147937428 -306776577 269559182</internalNodes>
          <leafValues>
            -5.0085431337356567e-01 2.2868768870830536e-01</leafValues></_>
        <_>
          <internalNodes>
            0 -1 23 230624100 -269854466 -547809541 1694105053 764816721
            1810837834 -609402559 -1083905684</internalNodes>
          <leafValues>
            -5.9120911359786987e-01 1.7591634392738342e-01</leafValues></_>
        <_>
          <internalNodes>
            0 -1 69 -813636992 2043768509 4842126 1440553620 431085816
            -1518140789 1461947530 20005819</internalNodes>
          <leafValues>
            -4.3238463997840881e-01 2.6619201898574829e-01</leafValues></_>
        <_>
          <internalNodes>
            0 -1 11 -1480909 507478667 1065254911 442209918 181268635
            -1900553249 -269353217 -884082697</internalNodes>
          <leafValues>
            -3.0361461639404297e-01 3.9064881205558777e-01</leafValues></_></weakClassifiers></_>
    <!-- stage 4 -->
    <_>
      <maxWeakCount>10</maxWeakCount>
      <stageThreshold>-1.3264174461364746e+00</stageThreshold>
      <weakClassifiers>
        <_>
          <internalNodes>
            0 -1 50 -805315105 -67128353 650444543 -2100523 -1086327297
            -328224833 -140790017 -1059585</internalNodes>
          <leafValues>
            -6.2981700897216797e-01 3.5690236091613770e-01</leafValues></_>
        <_>
          <internalNodes>
            0 -1 124 -1097 2077683955 -268435457 -1073875974 -545270338
            -33916929 1291321087 -537920519</internalNodes>
          <leafValues>
            -3.5487487912178040e-01 5.6083601713180542e-01</leafValues></_>
        <_>
          <internalNodes>
            0 -1 107 -1627693573 -269582338 747613555 -2133819458
            1869740911 -847254721 -1913598617 -323686411</internalNodes>
          <leafValues>
            -3.9038562774658203e-01 3.1376540660858154e-01</leafValues></_>
        <_>
          <internalNodes>
            0 -1 46 486488217 -1079441 -69615881 855636853 -370212898
            -1150908005 -262157 -328049303</internalNodes>
          <leafValues>
            -3.6746171116828918e-01 3.3248531818389893e-01</leafValues></_>
        <_>
          <internalNodes>
            0 -1 108 -536937173 -1073741837 -16843269 -25122 183839599
            -4276232 536654303 -1073820521</internalNodes>
          <leafValues>
            -2.7348184585571289e-01 4.2983043193817139e-01</leafValues></_>
        <_>
          <internalNodes>
            0 -1 53 -1366783864 -1862750678 730661429 187959298
            704572921 -624958425 -1445205761 296049391</internalNodes>
          <leafValues>
            -4.6225467324256897e-01 2.7928158640861511e-01</leafValues></_>
        <_>
          <internalNodes>
            0 -1 120 238976290 -56698491 -1009294858 687862775
            -467403933 -815026977 -543562698 -395248178</internalNodes>
          <leafValues>
            -4.9057909846305847e-01 2.2949206829071045e-01</leafValues></_>
        <_>
          <internalNodes>
            0 -1 128 -79795271 788479994 -135282689 -151700483
            -1384202433 -276922497 -675366945 -31785607</internalNodes>
          <leafValues>
            -3.2732981443405151e-01 3.5584947466850281e-01</leafValues></_>
        <_>
          <internalNodes>
            0 -1 48 1073433594 -322381250 1947909341 -799452674
            802122383 -483673798 820962806 -806728891</internalNodes>
          <leafValues>
            -3.9951154589653015e-01 2.9523319005966187e-01</leafValues></_>
        <_>
          <internalNodes>
            0 -1 21 1856782168 -389289762 -1755448855 -1191233121
            857153399 -579078433 1600289150 -8461447</internalNodes>
          <leafValues>
            -4.1190457344055176e-01 2.9180812835693359e-01</leafValues></_></weakClassifiers></_>
    <!-- stage 5 -->
    <_>
      <maxWeakCount>11</maxWeakCount>
      <stageThreshold>-1.4813208580017090e+00</stageThreshold>
      <weakClassifiers>
        <_>
          <internalNodes>
            0 -1 111 -40370209 -7340545 -538412033 -41944065 -1564823605
            -1346634861 -84084771 -2102789</internalNodes>
          <leafValues>
            -6.3172554969787598e-01 4.5955881476402283e-01</leafValues></_>
        <_>
          <internalNodes>
            0 -1 8 -67120675 -9478 -294913 -4196866 -1481720321
            -1359090945 415105023 -536883969</internalNodes>
          <leafValues>
            -3.1451189517974854e-01 6.4214044809341431e-01</leafValues></_>
        <_>
          <internalNodes>
            0 -1 27 -603979940 -34017357 -82049 -8979147 -1392517412
            -1502118017 -587280642 -278545</internalNodes>
          <leafValues>
            -1.9472770392894745e-01 5.5752766132354736e-01</leafValues></_>
        <_>
          <internalNodes>
            0 -1 75 -520030072 1433521840 1158700707 -344782471
            1343339711 449918912 541077915 1000285007</internalNodes>
          <leafValues>
            -3.2151433825492859e-01 3.4321889281272888e-01</leafValues></_>
        <_>
          <internalNodes>
            0 -1 115 1870642605 -1145373193 721385467 -1346470531
            -273869425 -1074266113 925929259 -1713718049</internalNodes>
          <leafValues>
            -2.7950724959373474e-01 3.8942462205886841e-01</leafValues></_>
        <_>
          <internalNodes>
            0 -1 76 -782444384 2030050370 898838684 -1817093960
            346146236 691317219 1410272171 436929323</internalNodes>
          <leafValues>
            -3.7482562661170959e-01 2.8895375132560730e-01</leafValues></_>
        <_>
          <internalNodes>
            0 -1 22 794758967 -1412730376 1671131125 1560133618
            -1619060107 1811748391 -1804579214 -867346083</internalNodes>
          <leafValues>
            -4.5755624771118164e-01 2.5622081756591797e-01</leafValues></_>
        <_>
          <internalNodes>
            0 -1 16 1950392738 1409610018 -1646915694 -681526089
            -334069828 1517497022 2134855411 2138521430</internalNodes>
          <leafValues>
            -4.5298486948013306e-01 2.4115270376205444e-01</leafValues></_>
        <_>
          <internalNodes>
            0 -1 133 -1365348996 -841132682 -915674665 783842794
            -1566612681 2127549835 -1694671499 229309948</internalNodes>
          <leafValues>
            -6.0013222694396973e-01 1.7898197472095490e-01</leafValues></_>
        <_>
          <internalNodes>
            0 -1 49 -453545259 994000943 1873526778 454737647
            -1349952257 -276955412 -88080513 -77072393</internalNodes>
          <leafValues>
            -2.8547486662864685e-01 3.8870781660079956e-01</leafValues></_>
        <_>
          <internalNodes>
            0 -1 95 -17897683 -1090623758 2147414773 1936897899
            -1342224736 -1090978747 -19041606 -27790073</internalNodes>
          <leafValues>
            -3.0478742718696594e-01 3.7221801280975342e-01</leafValues></_></weakClassifiers></_>
    <!-- stage 6 -->
    <_>
      <maxWeakCount>11</maxWeakCount>
      <stageThreshold>-1.3580962419509888e+00</stageThreshold>
      <weakClassifiers>
        <_>
          <internalNodes>
            0 -1 129 -33034666 -149192829 -1136462401 1936650626
            -658516242 -103829869 -628104961 2080357887</internalNodes>
          <leafValues>
            -7.0540493726730347e-01 1.3031160831451416e-01</leafValues></_>
        <_>
          <internalNodes>
            0 -1 4 -796681 -8671831 -100700173 2113781741 -557854821
            -81611602 -419498529 -8769</internalNodes>
          <leafValues>
            -3.2958060503005981e-01 5.9227740764617920e-01</leafValues></_>
        <_>
          <internalNodes>
            0 -1 67 -522140968 2013759936 1700227090 1464856881
            -2098151286 404789957 706468750 42464575</internalNodes>
          <leafValues>
            -3.9010202884674072e-01 2.9177248477935791e-01</leafValues></_>
        <_>
          <internalNodes>
            0 -1 100 -5244461 -1074823212 -297818958 -622601 -1529632501
            -1667174405 -999451205 1195294541</internalNodes>
          <leafValues>
            -3.0889239907264709e-01 3.4103485941886902e-01</leafValues></_>
        <_>
          <internalNodes>
            0 -1 2 -25303883 -8472645 -1359528209 -38798634 -1761628165
            -1413759056 1291788283 -675807365</internalNodes>
          <leafValues>
            -2.0271536707878113e-01 5.1023739576339722e-01</leafValues></_>
        <_>
          <internalNodes>
            0 -1 81 -1049966206 -1711828191 66624 571949575 1210269832
            -1115471601 1264079240 84991979</internalNodes>
          <leafValues>
            -4.1231396794319153e-01 2.8516569733619690e-01</leafValues></_>
        <_>
          <internalNodes>
            0 -1 88 -43920736 -142476253 -272906536 469717494 -728571746
            859267058 -956839233 1098365951</internalNodes>
          <leafValues>
            -3.0865260958671570e-01 3.4549400210380554e-01</leafValues></_>
        <_>
          <internalNodes>
            0 -1 68 -128718686 -714595706 -1854784215 1603259587
            -393671734 -1149138430 453828714 1997530859</internalNodes>
          <leafValues>
            -2.9968556761741638e-01 3.5386565327644348e-01</leafValues></_>
        <_>
          <internalNodes>
            0 -1 10 -1244111497 -276467425 -1039478369 -872222638
            -4230989 -1176806629 -991364865 1897887861</internalNodes>
          <leafValues>
            -3.7513244152069092e-01 2.8557917475700378e-01</leafValues></_>
        <_>
          <internalNodes>
            0 -1 113 1067396189 1069996355 -354113374 -34077921
            -1435464600 -1432772575 1668704663 -1347084069</internalNodes>
          <leafValues>
            -3.4635078907012939e-01 3.1069263815879822e-01</leafValues></_>
        <_>
          <internalNodes>
            0 -1 64 2052124874 1972924426 1359423489 1467044883
            -1221610849 100737193 134680895 527163263</internalNodes>
          <leafValues>
            -3.3244636654853821e-01 3.3009973168373108e-01</leafValues></_></weakClassifiers></_>
    <!-- stage 7 -->
    <_>
      <maxWeakCount>12</maxWeakCount>
      <stageThreshold>-1.5937790870666504e+00</stageThreshold>
      <weakClassifiers>
        <_>
          <internalNodes>
            0 -1 112 -12848129 -3148057 -6597633 -36718341 -1149510657
            -806885153 -1175461909 -1049601</internalNodes>
          <leafValues>
            -6.2226814031600952e-01 3.5620051622390747e-01</leafValues></_>
        <_>
          <internalNodes>
            0 -1 34 -172232229 -73672793 -16793601 -671825 1258289095
            -17629185 -1107823138 -34105858</internalNodes>
          <leafValues>
            -2.9815602302551270e-01 5.6406706571578979e-01</leafValues></_>
        <_>
          <internalNodes>
            0 -1 119 2103378279 -74275 -2049600777 -301325993 1396601186
            2136904592 729331122 226551288</internalNodes>
          <leafValues>
            -4.4086122512817383e-01 2.4252669513225555e-01</leafValues></_>
        <_>
          <internalNodes>
            0 -1 41 -73975691 -1884390948 -908083522 1785695534
            -237519909 51251527 -324732001 -84544545</internalNodes>
          <leafValues>
            -3.3967566490173340e-01 3.1698948144912720e-01</leafValues></_>
        <_>
          <internalNodes>
            0 -1 1 932671086 -296042164 1099156950 -253827337 1844144495
            -809916145 -710937355 1160133352</internalNodes>
          <leafValues>
            -5.0700259208679199e-01 2.3150375485420227e-01</leafValues></_>
        <_>
          <internalNodes>
            0 -1 98 -279117917 -1209319515 -8564551 1299915889
            -377540656 -285383717 -301598992 -624937733</internalNodes>
          <leafValues>
            -3.4497714042663574e-01 2.8479102253913879e-01</leafValues></_>
        <_>
          <internalNodes>
            0 -1 114 769346799 -1983181905 268935103 -133214209
            208005463 -1350605493 -465584019 1393184204</internalNodes>
          <leafValues>
            -4.2942482233047485e-01 2.3829977214336395e-01</leafValues></_>
        <_>
          <internalNodes>
            0 -1 17 -1509881991 -1900436739 -737114180 894130144
            1807938455 2146519002 -71151115 1601572970</internalNodes>
          <leafValues>
            -4.3653380870819092e-01 2.3095101118087769e-01</leafValues></_>
        <_>
          <internalNodes>
            0 -1 78 1914036876 1460410645 1638465029 1776682275
            -832790343 -928799753 -1693914919 2004086299</internalNodes>
          <leafValues>
            -3.2875210046768188e-01 3.0336710810661316e-01</leafValues></_>
        <_>
          <internalNodes>
            0 -1 0 -1346402829 -294690950 -218105091 -940867842
            -268585607 -285279106 -657665 -2435329</internalNodes>
          <leafValues>
            -2.6502066850662231e-01 3.9691579341888428e-01</leafValues></_>
        <_>
          <internalNodes>
            0 -1 20 -1184778736 1065743409 1826042136 353065216
            1186250720 1979112033 1404265504 2063728939</internalNodes>
          <leafValues>
            -5.3350871801376343e-01 2.0349578559398651e-01</leafValues></_>
        <_>
          <internalNodes>
            0 -1 84 -1610885184 -1718597660 599241512 -1451047612
            1286631628 -1202789504 1598024872 1213832818</internalNodes>
          <leafValues>
            -4.3682104349136353e-01 2.2789342701435089e-01</leafValues></_></weakClassifiers></_>
    <!-- stage 8 -->
    <_>
      <maxWeakCount>13</maxWeakCount>
      <stageThreshold>-1.4919873476028442e+00</stageThreshold>
      <weakClassifiers>
        <_>
          <internalNodes>
            0 -1 134 -24118277 -551597574 -586819361 -551552550
            -71577089 -8711235 -544343041 -547368565</internalNodes>
          <leafValues>
            -6.1624687910079956e-01 4.0769231319427490e-01</leafValues></_>
        <_>
          <internalNodes>
            0 -1 52 -554702865 -42222855 528463871 -541098247
            -1988121890 -589594761 -1883384129 -536883713</internalNodes>
          <leafValues>
            -2.7910345792770386e-01 5.7487517595291138e-01</leafValues></_>
        <_>
          <internalNodes>
            0 -1 118 -117447233 -142674625 -1413 -583271757 1610527486
            -25165827 -1082165249 -306188033</internalNodes>
          <leafValues>
            -1.9608888030052185e-01 5.5924165248870850e-01</leafValues></_>
        <_>
          <internalNodes>
            0 -1 7 -1635854722 -33620049 1946140218 -144441605
            1333773527 -1663106048 -50888965 2080331771</internalNodes>
          <leafValues>
            -2.1001151204109192e-01 4.1350445151329041e-01</leafValues></_>
        <_>
          <internalNodes>
            0 -1 122 469654718 -1105165863 1187603158 467002472
            -241262978 -6554818 298840314 1067768944</internalNodes>
          <leafValues>
            -4.3181914091110229e-01 2.3093515634536743e-01</leafValues></_>
        <_>
          <internalNodes>
            0 -1 71 -261621040 -745403110 1003328731 1497303112
            1636328911 -1741528925 71113867 1137148499</internalNodes>
          <leafValues>
            -3.2018515467643738e-01 3.0969655513763428e-01</leafValues></_>
        <_>
          <internalNodes>
            0 -1 61 -71480074 -1438094741 -3828998 537892322 -85963708
            -1901135625 56211568 2000346085</internalNodes>
          <leafValues>
            -5.0786924362182617e-01 2.0678970217704773e-01</leafValues></_>
        <_>
          <internalNodes>
            0 -1 86 -567380526 2015525566 2134032755 -1145357863
            -1975600648 -332431498 -671111685 -72626713</internalNodes>
          <leafValues>
            -2.4155870079994202e-01 4.2041739821434021e-01</leafValues></_>
        <_>
          <internalNodes>
            0 -1 31 -586889847 187284352 -1379300140 -1783140739
            -102763027 308003320 -1692931522 1024856799</internalNodes>
          <leafValues>
            -3.4091681241989136e-01 2.8803646564483643e-01</leafValues></_>
        <_>
          <internalNodes>
            0 -1 24 1801157479 -1232594859 -241730882 -61023117
            -388928785 -1197550586 1575165786 -660714581</internalNodes>
          <leafValues>
            -3.1701830029487610e-01 3.2082217931747437e-01</leafValues></_>
        <_>
          <internalNodes>
            0 -1 99 -2125 -1140975627 1945993183 -839914638 -327157506
            -541065356 1904209627 -680792073</internalNodes>
          <leafValues>
            -2.1232691407203674e-01 5.1597756147384644e-01</leafValues></_>
        <_>
          <internalNodes>
            0 -1 43 -364198764 33720074 1863516203 725337696 -1995059736
            -1799583555 -1133944835 1086514915</internalNodes>
          <leafValues>
            -4.7228729724884033e-01 2.1661649644374847e-01</leafValues></_>
        <_>
          <internalNodes>
            0 -1 70 -1623496456 1940846559 911366179 -1785743857
            -1143979380 705700352 -1603625791 509597642</internalNodes>
          <leafValues>
            -3.5110560059547424e-01 2.8199106454849243e-01</leafValues></_></weakClassifiers></_>
    <!-- stage 9 -->
    <_>
      <maxWeakCount>14</maxWeakCount>
      <stageThreshold>-1.6012009382247925e+00</stageThreshold>
      <weakClassifiers>
        <_>
          <internalNodes>
            0 -1 55 -50334865 1501549502 -142870529 -235144205
            -1077936385 -1880184923 402390015 -6300673</internalNodes>
          <leafValues>
            -6.3343065977096558e-01 2.2428570687770844e-01</leafValues></_>
        <_>
          <internalNodes>
            0 -1 103 -262401 -536873161 -150994946 -808489601
            -1073744195 -301992833 90160638 -272638769</internalNodes>
          <leafValues>
            -2.9393249750137329e-01 5.5868959426879883e-01</leafValues></_>
        <_>
          <internalNodes>
            0 -1 28 -1077936547 -21001 -671121569 2073438071 -1489781447
            -1082171908 649780991 -73471521</internalNodes>
          <leafValues>
            -2.4257144331932068e-01 4.0928229689598083e-01</leafValues></_>
        <_>
          <internalNodes>
            0 -1 125 -403753189 -268476261 1405083999 1314974127
            -1217481385 1306219067 -2005995785 600453365</internalNodes>
          <leafValues>
            -4.2931523919105530e-01 2.2389230132102966e-01</leafValues></_>
        <_>
          <internalNodes>
            0 -1 90 2050979694 -1419837835 -1524796942 1043067248
            -955350156 -919603536 -314600152 2002973025</internalNodes>
          <leafValues>
            -4.3693530559539795e-01 2.1759353578090668e-01</leafValues></_>
        <_>
          <internalNodes>
            0 -1 35 733873265 526367982 -10922098 -1191207444 67087486
            -1124345669 -1479621027 -571646107</internalNodes>
          <leafValues>
            -3.6079257726669312e-01 2.7485522627830505e-01</leafValues></_>
        <_>
          <internalNodes>
            0 -1 106 802012731 -38898114 -335544578 325902204 132071271
            -310396937 1602041335 -80511525</internalNodes>
          <leafValues>
            -3.0720520019531250e-01 3.1687310338020325e-01</leafValues></_>
        <_>
          <internalNodes>
            0 -1 82 -79386094 -631662493 70551849 933696104 -1432606502
            -833564359 272603592 17891339</internalNodes>
          <leafValues>
            -4.2149785161018372e-01 2.2569982707500458e-01</leafValues></_>
        <_>
          <internalNodes>
            0 -1 12 -21194598 -337745522 -774382088 -897908770
            1888932595 -1679826389 -136850953 -963246221</internalNodes>
          <leafValues>
            -3.3600017428398132e-01 2.9198324680328369e-01</leafValues></_>
        <_>
          <internalNodes>
            0 -1 62 -426204288 1052296964 2102025568 301033553
            1740996453 259366741 -1216847576 182670418</internalNodes>
          <leafValues>
            -6.2485468387603760e-01 1.4833673834800720e-01</leafValues></_>
        <_>
          <internalNodes>
            0 -1 117 1566254985 919753078 -60896326 -1096918528
            256932404 -1434795206 1020146000 -57374932</internalNodes>
          <leafValues>
            -4.9804529547691345e-01 1.9323781132698059e-01</leafValues></_>
        <_>
          <internalNodes>
            0 -1 13 -1682877231 -1097388353 534503416 -167911957
            -1170323777 -1208532993 -528419 -1356086489</internalNodes>
          <leafValues>
            -2.7684059739112854e-01 3.6309912800788879e-01</leafValues></_>
        <_>
          <internalNodes>
            0 -1 130 791544936 -1433669229 -931105200 132052981
            1648088692 978852763 547863252 777573845</internalNodes>
          <leafValues>
            -6.7254388332366943e-01 1.4680345356464386e-01</leafValues></_>
        <_>
          <internalNodes>
            0 -1 87 -274601002 -1638339756 -2062286852 1165470882
            1212452780 -1142625428 -2052985938 1097189050</internalNodes>
          <leafValues>
            -3.7460947036743164e-01 2.6910671591758728e-01</leafValues></_></weakClassifiers></_>
    <!-- stage 10 -->
    <_>
      <maxWeakCount>13</maxWeakCount>
      <stageThreshold>-1.7613648176193237e+00</stageThreshold>
      <weakClassifiers>
        <_>
          <internalNodes>
            0 -1 5 -538976801 -606122017 -711589941 -9223 -1145380865
            -38821674 -257 -536884225</internalNodes>
          <leafValues>
            -6.0194176435470581e-01 4.4972375035285950e-01</leafValues></_>
        <_>
          <internalNodes>
            0 -1 124 -603980873 2073460979 -257 -1207962694 -545262178
            -264201 1324719871 -605032261</internalNodes>
          <leafValues>
            -3.2627278566360474e-01 4.9157461524009705e-01</leafValues></_>
        <_>
          <internalNodes>
            0 -1 96 -33554817 -1719960587 -1216956227 2113763064
            -134234164 -76513921 -1211695157 -59768993</internalNodes>
          <leafValues>
            -2.1318292617797852e-01 4.7762575745582581e-01</leafValues></_>
        <_>
          <internalNodes>
            0 -1 54 -21697282 1220509426 -983945993 1860878741
            2108651310 -67966459 1929070583 -179052743</internalNodes>
          <leafValues>
            -3.1661677360534668e-01 2.8938996791839600e-01</leafValues></_>
        <_>
          <internalNodes>
            0 -1 42 -1898969140 1368042366 -259225862 -35196197
            -1411434731 -617953351 -1417132673 -1351159754</internalNodes>
          <leafValues>
            -3.5126215219497681e-01 2.6464268565177917e-01</leafValues></_>
        <_>
          <internalNodes>
            0 -1 93 804150570 -1445014724 -1035028877 777182812 -5438955
            -1078039469 -761245196 -564915120</internalNodes>
          <leafValues>
            -5.1246559619903564e-01 2.0631383359432220e-01</leafValues></_>
        <_>
          <internalNodes>
            0 -1 6 -802509398 1931484692 -71546219 -1148993646 521093049
            -420729348 -1086622309 890699766</internalNodes>
          <leafValues>
            -4.3235495686531067e-01 2.2852253913879395e-01</leafValues></_>
        <_>
          <internalNodes>
            0 -1 92 945320922 1003944302 -545186848 -1943281206
            2039434612 1426275314 200955327 1473148550</internalNodes>
          <leafValues>
            -4.5009112358093262e-01 2.0969492197036743e-01</leafValues></_>
        <_>
          <internalNodes>
            0 -1 121 703744495 -492835330 -921721807 -454591657
            467001195 686349225 1876515667 -39783256</internalNodes>
          <leafValues>
            -3.9262479543685913e-01 2.3363278806209564e-01</leafValues></_>
        <_>
          <internalNodes>
            0 -1 123 -1109459610 215481982 -512303137 -1411399687
            -60090279 428835811 604967923 -1894007058</internalNodes>
          <leafValues>
            -3.3447653055191040e-01 2.8224429488182068e-01</leafValues></_>
        <_>
          <internalNodes>
            0 -1 39 1528632703 -350500877 1160840383 -230569006
            -852895235 -1699576742 -1672670861 1903578559</internalNodes>
          <leafValues>
            -3.5832959413528442e-01 2.7470496296882629e-01</leafValues></_>
        <_>
          <internalNodes>
            0 -1 72 -260708842 -1168469396 -1008349880 790731836
            1961820294 189323684 351832621 996655231</internalNodes>
          <leafValues>
            -3.6124235391616821e-01 2.7329152822494507e-01</leafValues></_>
        <_>
          <internalNodes>
            0 -1 51 -737594148 1025787442 666931249 454112542 -545981442
            69390620 1196129326 1618366547</internalNodes>
          <leafValues>
            -4.1353920102119446e-01 2.3414877057075500e-01</leafValues></_></weakClassifiers></_>
    <!-- stage 11 -->
    <_>
      <maxWeakCount>13</maxWeakCount>
      <stageThreshold>-1.4051827192306519e+00</stageThreshold>
      <weakClassifiers>
        <_>
          <internalNodes>
            0 -1 127 -536877069 -148244032 -1691364097 -82059265
            -67372033 -5275601 1388304378 -81792001</internalNodes>
          <leafValues>
            -6.1960840225219727e-01 3.5842293500900269e-01</leafValues></_>
        <_>
          <internalNodes>
            0 -1 29 -75497481 -1145311441 -67603 -680788166 2147204013
            -1431126481 -33726504 -309477665</internalNodes>
          <leafValues>
            -3.1481099128723145e-01 4.7032308578491211e-01</leafValues></_>
        <_>
          <internalNodes>
            0 -1 110 -33161 -72974354 -16859393 -344948996 -125899831
            -1913348145 1476378611 -604971424</internalNodes>
          <leafValues>
            -2.9729351401329041e-01 3.4396705031394958e-01</leafValues></_>
        <_>
          <internalNodes>
            0 -1 14 -1231079597 134187631 -329868685 -654649546
            475788709 -1612738437 1374420526 -541662209</internalNodes>
          <leafValues>
            -3.3332422375679016e-01 2.8522858023643494e-01</leafValues></_>
        <_>
          <internalNodes>
            0 -1 109 -21465347 -1090552580 -268476737 -134488129
            1991972774 -542113801 -1690921480 -1077936422</internalNodes>
          <leafValues>
            -2.3093920946121216e-01 3.8835883140563965e-01</leafValues></_>
        <_>
          <internalNodes>
            0 -1 45 -14491271 -1699066117 775583743 -1938063381
            2130427615 1995665406 713023193 1407711219</internalNodes>
          <leafValues>
            -2.4365545809268951e-01 3.7097778916358948e-01</leafValues></_>
        <_>
          <internalNodes>
            0 -1 77 -553724464 -317671536 492568500 986988951 510790316
            -1201854662 514475031 2140125557</internalNodes>
          <leafValues>
            -4.2483264207839966e-01 2.2151689231395721e-01</leafValues></_>
        <_>
          <internalNodes>
            0 -1 131 -692138245 -829527533 -819907585 1249526606
            929517420 -611153247 1661925260 -7807492</internalNodes>
          <leafValues>
            -3.1004285812377930e-01 3.1214502453804016e-01</leafValues></_>
        <_>
          <internalNodes>
            0 -1 56 -2305 -299087 1061092989 2012995257 933227921
            1975352828 1040181247 -38797891</internalNodes>
          <leafValues>
            -1.9151756167411804e-01 5.4499673843383789e-01</leafValues></_>
        <_>
          <internalNodes>
            0 -1 94 -2038364935 1054594832 1481885620 -855737857
            1939723061 -51510325 -309333017 -289112213</internalNodes>
          <leafValues>
            -3.4625825285911560e-01 2.8313571214675903e-01</leafValues></_>
        <_>
          <internalNodes>
            0 -1 65 -733813242 1921100160 428720148 839917908
            -1989906269 62159023 1283344426 247417430</internalNodes>
          <leafValues>
            -4.3856072425842285e-01 2.2448475658893585e-01</leafValues></_>
        <_>
          <internalNodes>
            0 -1 9 378542481 1058221017 -108858986 -1746609738
            1675499754 -1831085364 2009254412 630391070</internalNodes>
          <leafValues>
            -5.2662277221679688e-01 1.6833649575710297e-01</leafValues></_>
        <_>
          <internalNodes>
            0 -1 89 1607122889 -1344414240 -344206555 1003345283
            -71421482 -1704000424 -226564549 -279719482</internalNodes>
          <leafValues>
            -2.9654255509376526e-01 3.2649201154708862e-01</leafValues></_></weakClassifiers></_>
    <!-- stage 12 -->
    <_>
      <maxWeakCount>14</maxWeakCount>
      <stageThreshold>-1.5040012598037720e+00</stageThreshold>
      <weakClassifiers>
        <_>
          <internalNodes>
            0 -1 33 -1 -138440721 -770474625 -77701171 -1412707920
            -1194358625 -70321217 -77595185</internalNodes>
          <leafValues>
            -6.2311482429504395e-01 3.0033004283905029e-01</leafValues></_>
        <_>
          <internalNodes>
            0 -1 104 2147475197 -538050589 -276856833 -9217029
            -1615661825 -847314949 -673214210 -537142529</internalNodes>
          <leafValues>
            -2.8651449084281921e-01 5.6186616420745850e-01</leafValues></_>
        <_>
          <internalNodes>
            0 -1 15 -102768165 -536913841 1526724606 -546315605
            -607650821 -1955596289 1610611967 -87427105</internalNodes>
          <leafValues>
            -1.6808314621448517e-01 5.7974731922149658e-01</leafValues></_>
        <_>
          <internalNodes>
            0 -1 132 -1628045473 -467995895 2097773943 607845203
            130391855 2140111595 572446790 985321981</internalNodes>
          <leafValues>
            -4.0146142244338989e-01 2.5849458575248718e-01</leafValues></_>
        <_>
          <internalNodes>
            0 -1 135 -545627397 -16390 1862270847 -755171721 1989850005
            776924751 -4522505 -4210948</internalNodes>
          <leafValues>
            -2.4951265752315521e-01 3.7082961201667786e-01</leafValues></_>
        <_>
          <internalNodes>
            0 -1 57 -1565811815 -101758364 1263435340 443241886
            2063268959 1045214719 -117445835 -765078889</internalNodes>
          <leafValues>
            -3.1789276003837585e-01 2.9369661211967468e-01</leafValues></_>
        <_>
          <internalNodes>
            0 -1 47 2068274661 482529261 845117625 98478090 -1116053673
            2141731769 1815768616 1689154427</internalNodes>
          <leafValues>
            -3.5107162594795227e-01 2.6559221744537354e-01</leafValues></_>
        <_>
          <internalNodes>
            0 -1 91 232675079 1868359519 677104379 1526627540
            -1150447099 836380030 1602148938 987952320</internalNodes>
          <leafValues>
            -3.9198794960975647e-01 2.3695932328701019e-01</leafValues></_>
        <_>
          <internalNodes>
            0 -1 44 -1392804832 403605239 1032541811 980312922
            1403692912 -874759238 -257333289 1651824593</internalNodes>
          <leafValues>
            -5.0452715158462524e-01 1.7780435085296631e-01</leafValues></_>
        <_>
          <internalNodes>
            0 -1 38 293775844 541123042 2001516556 1415674898 2122050015
            449276522 869382386 727646806</internalNodes>
          <leafValues>
            -5.2162814140319824e-01 1.7330361902713776e-01</leafValues></_>
        <_>
          <internalNodes>
            0 -1 102 -706988189 -337626995 -1808011272 477443947
            -1152304896 -2040528641 -1924361743 1321900659</internalNodes>
          <leafValues>
            -3.8977229595184326e-01 2.2074533998966217e-01</leafValues></_>
        <_>
          <internalNodes>
            0 -1 66 -219779448 -665778254 1047763340 1970746928
            1236772092 580033795 -2076829462 2100101163</internalNodes>
          <leafValues>
            -3.5340619087219238e-01 2.6917624473571777e-01</leafValues></_>
        <_>
          <internalNodes>
            0 -1 79 -153050169 2046286177 534007617 -1644562155
            -2002462797 396067131 -381626849 186003795</internalNodes>
          <leafValues>
            -3.1520307064056396e-01 3.0160373449325562e-01</leafValues></_>
        <_>
          <internalNodes>
            0 -1 3 1069174576 -1902194148 -1825582117 -430637930
            -1901649569 -1753508525 -1781083689 1286731367</internalNodes>
          <leafValues>
            -4.8401758074760437e-01 2.0123541355133057e-01</leafValues></_></weakClassifiers></_></stages>
  <features>
    <_>
      <rect>
        0 0 1 1</rect></_>
    <_>
      <rect>
        0 0 2 1</rect></_>
    <_>
      <rect>
        0 0 2 2</rect></_>
    <_>
      <rect>
        0 0 2 3</rect></_>
    <_>
      <rect>
        0 0 3 3</rect></_>
    <_>
      <rect>
        0 0 3 5</rect></_>
    <_>
      <rect>
        0 0 13 14</rect></_>
    <_>
      <rect>
        0 1 2 1</rect></_>
    <_>
      <rect>
        0 1 3 4</rect></_>
    <_>
      <rect>
        0 1 3 10</rect></_>
    <_>
      <rect>
        0 2 1 2</rect></_>
    <_>
      <rect>
        0 2 5 4</rect></_>
    <_>
      <rect>
        0 3 2 2</rect></_>
    <_>
      <rect>
        0 4 4 5</rect></_>
    <_>
      <rect>
        0 5 3 2</rect></_>
    <_>
      <rect>
        0 5 4 3</rect></_>
    <_>
      <rect>
        0 5 9 14</rect></_>
    <_>
      <rect>
        0 6 2 2</rect></_>
    <_>
      <rect>
        0 8 1 1</rect></_>
    <_>
      <rect>
        0 20 13 10</rect></_>
    <_>
      <rect>
        0 23 16 9</rect></_>
    <_>
      <rect>
        0 40 3 3</rect></_>
    <_>
      <rect>
        0 44 1 1</rect></_>
    <_>
      <rect>
        0 44 2 2</rect></_>
    <_>
      <rect>
        1 0 2 2</rect></_>
    <_>
      <rect>
        1 0 12 15</rect></_>
    <_>
      <rect>
        1 0 13 2</rect></_>
    <_>
      <rect>
        1 1 1 1</rect></_>
    <_>
      <rect>
        1 1 1 2</rect></_>
    <_>
      <rect>
        1 1 2 2</rect></_>
    <_>
      <rect>
        1 1 3 3</rect></_>
    <_>
      <rect>
        1 1 9 9</rect></_>
    <_>
      <rect>
        1 1 16 16</rect></_>
    <_>
      <rect>
        1 2 1 1</rect></_>
    <_>
      <rect>
        1 2 2 2</rect></_>
    <_>
      <rect>
        1 2 3 3</rect></_>
    <_>
      <rect>
        1 3 8 7</rect></_>
    <_>
      <rect>
        1 4 3 2</rect></_>
    <_>
      <rect>
        1 6 10 14</rect></_>
    <_>
      <rect>
        2 0 2 1</rect></_>
    <_>
      <rect>
        2 0 4 3</rect></_>
    <_>
      <rect>
        2 0 6 4</rect></_>
    <_>
      <rect>
        2 1 2 2</rect></_>
    <_>
      <rect>
        2 1 14 7</rect></_>
    <_>
      <rect>
        2 2 3 2</rect></_>
    <_>
      <rect>
        2 3 3 3</rect></_>
    <_>
      <rect>
        2 5 1 1</rect></_>
    <_>
      <rect>
        2 30 6 6</rect></_>
    <_>
      <rect>
        3 0 2 2</rect></_>
    <_>
      <rect>
        3 1 4 4</rect></_>
    <_>
      <rect>
        3 3 2 2</rect></_>
    <_>
      <rect>
        3 20 6 7</rect></_>
    <_>
      <rect>
        4 1 2 3</rect></_>
    <_>
      <rect>
        4 1 15 8</rect></_>
    <_>
      <rect>
        5 2 1 1</rect></_>
    <_>
      <rect>
        5 4 2 2</rect></_>
    <_>
      <rect>
        6 0 1 1</rect></_>
    <_>
      <rect>
        6 0 4 4</rect></_>
    <_>
      <rect>
        7 13 14 12</rect></_>
    <_>
      <rect>
        8 0 1 1</rect></_>
    <_>
      <rect>
        9 0 13 16</rect></_>
    <_>
      <rect>
        10 0 3 2</rect></_>
    <_>
      <rect>
        11 8 13 14</rect></_>
    <_>
      <rect>
        12 20 4 3</rect></_>
    <_>
      <rect>
        13 15 4 3</rect></_>
    <_>
      <rect>
        14 21 4 3</rect></_>
    <_>
      <rect>
        14 27 3 3</rect></_>
    <_>
      <rect>
        15 21 6 5</rect></_>
    <_>
      <rect>
        16 27 5 6</rect></_>
    <_>
      <rect>
        17 10 5 6</rect></_>
    <_>
      <rect>
        17 14 6 5</rect></_>
    <_>
      <rect>
        18 11 4 4</rect></_>
    <_>
      <rect>
        18 26 3 3</rect></_>
    <_>
      <rect>
        19 41 10 3</rect></_>
    <_>
      <rect>
        20 0 10 13</rect></_>
    <_>
      <rect>
        20 18 5 5</rect></_>
    <_>
      <rect>
        21 26 3 4</rect></_>
    <_>
      <rect>
        23 38 4 4</rect></_>
    <_>
      <rect>
        24 14 4 4</rect></_>
    <_>
      <rect>
        24 27 8 6</rect></_>
    <_>
      <rect>
        25 25 8 8</rect></_>
    <_>
      <rect>
        26 10 5 4</rect></_>
    <_>
      <rect>
        27 18 3 5</rect></_>
    <_>
      <rect>
        27 44 6 2</rect></_>
    <_>
      <rect>
        28 28 4 4</rect></_>
    <_>
      <rect>
        28 47 4 1</rect></_>
    <_>
      <rect>
        29 44 2 2</rect></_>
    <_>
      <rect>
        31 6 6 14</rect></_>
    <_>
      <rect>
        32 18 3 3</rect></_>
    <_>
      <rect>
        32 32 5 5</rect></_>
    <_>
      <rect>
        33 41 3 3</rect></_>
    <_>
      <rect>
        34 38 5 4</rect></_>
    <_>
      <rect>
        34 44 4 2</rect></_>
    <_>
      <rect>
        35 35 5 5</rect></_>
    <_>
      <rect>
        36 0 4 3</rect></_>
    <_>
      <rect>
        36 37 4 3</rect></_>
    <_>
      <rect>
        36 38 3 3</rect></_>
    <_>
      <rect>
        37 43 4 2</rect></_>
    <_>
      <rect>
        38 32 4 4</rect></_>
    <_>
      <rect>
        38 38 4 4</rect></_>
    <_>
      <rect>
        38 41 3 3</rect></_>
    <_>
      <rect>
        39 47 1 1</rect></_>
    <_>
      <rect>
        40 35 3 3</rect></_>
    <_>
      <rect>
        40 40 2 3</rect></_>
    <_>
      <rect>
        40 40 3 2</rect></_>
    <_>
      <rect>
        40 40 3 3</rect></_>
    <_>
      <rect>
        40 46 1 1</rect></_>
    <_>
      <rect>
        41 0 3 3</rect></_>
    <_>
      <rect>
        41 37 3 4</rect></_>
    <_>
      <rect>
        41 39 2 3</rect></_>
    <_>
      <rect>
        41 39 3 2</rect></_>
    <_>
      <rect>
        41 41 2 2</rect></_>
    <_>
      <rect>
        41 41 3 3</rect></_>
    <_>
      <rect>
        42 40 2 2</rect></_>
    <_>
      <rect>
        42 42 1 1</rect></_>
    <_>
      <rect>
        42 44 2 2</rect></_>
    <_>
      <rect>
        42 45 1 1</rect></_>
    <_>
      <rect>
        43 42 2 2</rect></_>
    <_>
      <rect>
        43 43 2 2</rect></_>
    <_>
      <rect>
        43 44 2 2</rect></_>
    <_>
      <rect>
        44 0 2 2</rect></_>
    <_>
      <rect>
        44 3 1 1</rect></_>
    <_>
      <rect>
        44 31 2 3</rect></_>
    <_>
      <rect>
        44 41 2 2</rect></_>
    <_>
      <rect>
        44 44 2 2</rect></_>
    <_>
      <rect>
        44 47 1 1</rect></_>
    <_>
      <rect>
        45 42 1 1</rect></_>
    <_>
      <rect>
        45 47 1 1</rect></_>
    <_>
      <rect>
        46 40 1 1</rect></_>
    <_>
      <rect>
        46 46 1 1</rect></_>
    <_>
      <rect>
        46 47 1 1</rect></_>
    <_>
      <rect>
        47 3 1 1</rect></_>
    <_>
      <rect>
        47 42 1 2</rect></_>
    <_>
      <rect>
        47 44 1 2</rect></_>
    <_>
      <rect>
        47 45 1 1</rect></_>
    <_>
      <rect>
        47 47 1 1</rect></_></features></cascade>
</opencv_storage>
