<?xml version="1.0"?>
<opencv_storage>
<stage6>
  <maxWeakCount>6</maxWeakCount>
  <stageThreshold>-1.8052518367767334e+00</stageThreshold>
  <weakClassifiers>
    <_>
      <internalNodes>
        0 -1 160564 -2097153 -2116673 -586548001 -201340585 -118751297
        -1064789 -1096028177 -1056769</internalNodes>
      <leafValues>
        -8.6305350065231323e-01 6.1940300464630127e-01</leafValues></_>
    <_>
      <internalNodes>
        0 -1 164441 -50335745 -4196969 -547506785 -542455473 -345505793
        -4206369 -73400577 -173016065</internalNodes>
      <leafValues>
        -5.9599310159683228e-01 5.5222338438034058e-01</leafValues></_>
    <_>
      <internalNodes>
        0 -1 107402 -25245581 -69668358 1460098430 -1107323490 -29906168
        -80109139 1521209851 1840643957</internalNodes>
      <leafValues>
        -6.0308986902236938e-01 4.1943737864494324e-01</leafValues></_>
    <_>
      <internalNodes>
        0 -1 6545 -1093271843 -346074697 2073548785 1830753791
        -860654593 -3154965 2065430391 -4325588</internalNodes>
      <leafValues>
        -5.4356324672698975e-01 4.6146926283836365e-01</leafValues></_>
    <_>
      <internalNodes>
        0 -1 154402 -1097928987 -1208154053 1066907647 207411663
        -1146405193 -1479865233 1973386111 -1415319573</internalNodes>
      <leafValues>
        -5.9761273860931396e-01 4.2390957474708557e-01</leafValues></_>
    <_>
      <internalNodes>
        0 -1 13305 2119933582 -1761968085 -1514325911 1541379419
        -758063144 -1699312706 1688125660 1601666863</internalNodes>
      <leafValues>
        -6.2949919700622559e-01 4.1680818796157837e-01</leafValues></_></weakClassifiers></stage6>
</opencv_storage>
