<?xml version="1.0"?>
<opencv_storage>
<stage8>
  <maxWeakCount>6</maxWeakCount>
  <stageThreshold>-2.0064542293548584e+00</stageThreshold>
  <weakClassifiers>
    <_>
      <internalNodes>
        0 -1 163691 -1 -534529 822829535 -2049 -944766981 -7612246
        -606211185 -4197441</internalNodes>
      <leafValues>
        -8.4971374273300171e-01 7.7033489942550659e-01</leafValues></_>
    <_>
      <internalNodes>
        0 -1 161603 -16794917 2147480805 -183397393 -11796657
        -1679819777 -7379525 -125059089 1610577727</internalNodes>
      <leafValues>
        -6.7350101470947266e-01 3.5692226886749268e-01</leafValues></_>
    <_>
      <internalNodes>
        0 -1 135113 -1361658213 -1931624146 1159007900 -808997411
        -73598432 1513742139 -108019713 -844169441</internalNodes>
      <leafValues>
        -6.9066619873046875e-01 3.2549640536308289e-01</leafValues></_>
    <_>
      <internalNodes>
        0 -1 55066 1742712591 -2030274780 1458563343 -268529033
        -1483997761 -1085359803 -276300929 -469796273</internalNodes>
      <leafValues>
        -5.1257127523422241e-01 4.5168402791023254e-01</leafValues></_>
    <_>
      <internalNodes>
        0 -1 166424 801177439 2145112527 -573996545 2012262655
        1267104381 -503590485 -273957954 -824410118</internalNodes>
      <leafValues>
        -5.6350773572921753e-01 4.4992858171463013e-01</leafValues></_>
    <_>
      <internalNodes>
        0 -1 30167 -610472400 -220862226 1502342799 -823868406
        1979544808 2028613850 1876850141 1151997547</internalNodes>
      <leafValues>
        -7.8372895717620850e-01 3.1925055384635925e-01</leafValues></_></weakClassifiers></stage8>
</opencv_storage>
